digraph Tree {
node [shape=box] ;
0 [label="X[2] <= 1.5\ngini = 0.4951\nsamples = 91\nvalue = [63, 5, 2, 1, 1, 1, 13, 3, 1, 1]"] ;
1 [label="X[6] <= 15.5\ngini = 0.6701\nsamples = 52\nvalue = [27, 5, 2, 1, 1, 0, 11, 3, 1, 1]"] ;
0 -> 1 [labeldistance=2.5, labelangle=45, headlabel="True"] ;
2 [label="X[3] <= 2.5\ngini = 0.722\nsamples = 45\nvalue = [20, 5, 2, 1, 1, 0, 11, 3, 1, 1]"] ;
1 -> 2 ;
3 [label="X[7] <= 6.5\ngini = 0.7171\nsamples = 43\nvalue = [20, 5, 2, 1, 1, 0, 9, 3, 1, 1]"] ;
2 -> 3 ;
4 [label="X[5] <= 4.6\ngini = 0.7934\nsamples = 11\nvalue = [3, 0, 2, 1, 0, 0, 3, 1, 1, 0]"] ;
3 -> 4 ;
5 [label="gini = 0.0\nsamples = 3\nvalue = [3, 0, 0, 0, 0, 0, 0, 0, 0, 0]"] ;
4 -> 5 ;
6 [label="X[7] <= 5.0\ngini = 0.75\nsamples = 8\nvalue = [0, 0, 2, 1, 0, 0, 3, 1, 1, 0]"] ;
4 -> 6 ;
7 [label="gini = 0.0\nsamples = 3\nvalue = [0, 0, 0, 0, 0, 0, 3, 0, 0, 0]"] ;
6 -> 7 ;
8 [label="X[6] <= 7.5\ngini = 0.72\nsamples = 5\nvalue = [0, 0, 2, 1, 0, 0, 0, 1, 1, 0]"] ;
6 -> 8 ;
9 [label="X[0] <= 2.0\ngini = 0.6667\nsamples = 3\nvalue = [0, 0, 0, 1, 0, 0, 0, 1, 1, 0]"] ;
8 -> 9 ;
10 [label="X[4] <= 1.5\ngini = 0.5\nsamples = 2\nvalue = [0, 0, 0, 1, 0, 0, 0, 0, 1, 0]"] ;
9 -> 10 ;
11 [label="gini = 0.0\nsamples = 1\nvalue = [0, 0, 0, 1, 0, 0, 0, 0, 0, 0]"] ;
10 -> 11 ;
12 [label="gini = 0.0\nsamples = 1\nvalue = [0, 0, 0, 0, 0, 0, 0, 0, 1, 0]"] ;
10 -> 12 ;
13 [label="gini = 0.0\nsamples = 1\nvalue = [0, 0, 0, 0, 0, 0, 0, 1, 0, 0]"] ;
9 -> 13 ;
14 [label="gini = 0.0\nsamples = 2\nvalue = [0, 0, 2, 0, 0, 0, 0, 0, 0, 0]"] ;
8 -> 14 ;
15 [label="X[5] <= 6.1\ngini = 0.6523\nsamples = 32\nvalue = [17, 5, 0, 0, 1, 0, 6, 2, 0, 1]"] ;
3 -> 15 ;
16 [label="X[7] <= 23.0\ngini = 0.7407\nsamples = 9\nvalue = [2, 2, 0, 0, 0, 0, 3, 2, 0, 0]"] ;
15 -> 16 ;
17 [label="X[6] <= 7.5\ngini = 0.48\nsamples = 5\nvalue = [0, 0, 0, 0, 0, 0, 3, 2, 0, 0]"] ;
16 -> 17 ;
18 [label="X[7] <= 16.5\ngini = 0.4444\nsamples = 3\nvalue = [0, 0, 0, 0, 0, 0, 1, 2, 0, 0]"] ;
17 -> 18 ;
19 [label="gini = 0.0\nsamples = 2\nvalue = [0, 0, 0, 0, 0, 0, 0, 2, 0, 0]"] ;
18 -> 19 ;
20 [label="gini = 0.0\nsamples = 1\nvalue = [0, 0, 0, 0, 0, 0, 1, 0, 0, 0]"] ;
18 -> 20 ;
21 [label="gini = 0.0\nsamples = 2\nvalue = [0, 0, 0, 0, 0, 0, 2, 0, 0, 0]"] ;
17 -> 21 ;
22 [label="X[6] <= 10.0\ngini = 0.5\nsamples = 4\nvalue = [2, 2, 0, 0, 0, 0, 0, 0, 0, 0]"] ;
16 -> 22 ;
23 [label="gini = 0.0\nsamples = 2\nvalue = [0, 2, 0, 0, 0, 0, 0, 0, 0, 0]"] ;
22 -> 23 ;
24 [label="gini = 0.0\nsamples = 2\nvalue = [2, 0, 0, 0, 0, 0, 0, 0, 0, 0]"] ;
22 -> 24 ;
25 [label="X[1] <= 1.5\ngini = 0.5369\nsamples = 23\nvalue = [15, 3, 0, 0, 1, 0, 3, 0, 0, 1]"] ;
15 -> 25 ;
26 [label="X[7] <= 33.0\ngini = 0.1528\nsamples = 12\nvalue = [11, 0, 0, 0, 0, 0, 0, 0, 0, 1]"] ;
25 -> 26 ;
27 [label="gini = 0.0\nsamples = 11\nvalue = [11, 0, 0, 0, 0, 0, 0, 0, 0, 0]"] ;
26 -> 27 ;
28 [label="gini = 0.0\nsamples = 1\nvalue = [0, 0, 0, 0, 0, 0, 0, 0, 0, 1]"] ;
26 -> 28 ;
29 [label="X[7] <= 23.5\ngini = 0.7107\nsamples = 11\nvalue = [4, 3, 0, 0, 1, 0, 3, 0, 0, 0]"] ;
25 -> 29 ;
30 [label="X[5] <= 6.65\ngini = 0.6667\nsamples = 9\nvalue = [4, 3, 0, 0, 1, 0, 1, 0, 0, 0]"] ;
29 -> 30 ;
31 [label="gini = 0.0\nsamples = 1\nvalue = [0, 0, 0, 0, 0, 0, 1, 0, 0, 0]"] ;
30 -> 31 ;
32 [label="X[5] <= 8.85\ngini = 0.5938\nsamples = 8\nvalue = [4, 3, 0, 0, 1, 0, 0, 0, 0, 0]"] ;
30 -> 32 ;
33 [label="X[5] <= 7.65\ngini = 0.4898\nsamples = 7\nvalue = [4, 3, 0, 0, 0, 0, 0, 0, 0, 0]"] ;
32 -> 33 ;
34 [label="X[6] <= 10.5\ngini = 0.48\nsamples = 5\nvalue = [2, 3, 0, 0, 0, 0, 0, 0, 0, 0]"] ;
33 -> 34 ;
35 [label="X[5] <= 7.1\ngini = 0.4444\nsamples = 3\nvalue = [2, 1, 0, 0, 0, 0, 0, 0, 0, 0]"] ;
34 -> 35 ;
36 [label="gini = 0.0\nsamples = 2\nvalue = [2, 0, 0, 0, 0, 0, 0, 0, 0, 0]"] ;
35 -> 36 ;
37 [label="gini = 0.0\nsamples = 1\nvalue = [0, 1, 0, 0, 0, 0, 0, 0, 0, 0]"] ;
35 -> 37 ;
38 [label="gini = 0.0\nsamples = 2\nvalue = [0, 2, 0, 0, 0, 0, 0, 0, 0, 0]"] ;
34 -> 38 ;
39 [label="gini = 0.0\nsamples = 2\nvalue = [2, 0, 0, 0, 0, 0, 0, 0, 0, 0]"] ;
33 -> 39 ;
40 [label="gini = 0.0\nsamples = 1\nvalue = [0, 0, 0, 0, 1, 0, 0, 0, 0, 0]"] ;
32 -> 40 ;
41 [label="gini = 0.0\nsamples = 2\nvalue = [0, 0, 0, 0, 0, 0, 2, 0, 0, 0]"] ;
29 -> 41 ;
42 [label="gini = 0.0\nsamples = 2\nvalue = [0, 0, 0, 0, 0, 0, 2, 0, 0, 0]"] ;
2 -> 42 ;
43 [label="gini = 0.0\nsamples = 7\nvalue = [7, 0, 0, 0, 0, 0, 0, 0, 0, 0]"] ;
1 -> 43 ;
44 [label="X[7] <= 44.5\ngini = 0.1446\nsamples = 39\nvalue = [36, 0, 0, 0, 0, 1, 2, 0, 0, 0]"] ;
0 -> 44 [labeldistance=2.5, labelangle=-45, headlabel="False"] ;
45 [label="X[6] <= 18.5\ngini = 0.0997\nsamples = 38\nvalue = [36, 0, 0, 0, 0, 0, 2, 0, 0, 0]"] ;
44 -> 45 ;
46 [label="X[7] <= 26.0\ngini = 0.054\nsamples = 36\nvalue = [35, 0, 0, 0, 0, 0, 1, 0, 0, 0]"] ;
45 -> 46 ;
47 [label="gini = 0.0\nsamples = 32\nvalue = [32, 0, 0, 0, 0, 0, 0, 0, 0, 0]"] ;
46 -> 47 ;
48 [label="X[7] <= 29.0\ngini = 0.375\nsamples = 4\nvalue = [3, 0, 0, 0, 0, 0, 1, 0, 0, 0]"] ;
46 -> 48 ;
49 [label="gini = 0.0\nsamples = 1\nvalue = [0, 0, 0, 0, 0, 0, 1, 0, 0, 0]"] ;
48 -> 49 ;
50 [label="gini = 0.0\nsamples = 3\nvalue = [3, 0, 0, 0, 0, 0, 0, 0, 0, 0]"] ;
48 -> 50 ;
51 [label="X[5] <= 9.85\ngini = 0.5\nsamples = 2\nvalue = [1, 0, 0, 0, 0, 0, 1, 0, 0, 0]"] ;
45 -> 51 ;
52 [label="gini = 0.0\nsamples = 1\nvalue = [1, 0, 0, 0, 0, 0, 0, 0, 0, 0]"] ;
51 -> 52 ;
53 [label="gini = 0.0\nsamples = 1\nvalue = [0, 0, 0, 0, 0, 0, 1, 0, 0, 0]"] ;
51 -> 53 ;
54 [label="gini = 0.0\nsamples = 1\nvalue = [0, 0, 0, 0, 0, 1, 0, 0, 0, 0]"] ;
44 -> 54 ;
}